<?xml version="1.0"?>
<opencv_storage>
<cascade>
  <stageType>BOOST</stageType>
  <featureType>HAAR</featureType>
  <height>20</height>
  <width>20</width>
  <stageParams>
    <boostType>GAB</boostType>
    <minHitRate>9.9900001287460327e-01</minHitRate>
    <maxFalseAlarm>5.0000000745058060e-02</maxFalseAlarm>
    <weightTrimRate>9.4999999999999996e-01</weightTrimRate>
    <maxDepth>1</maxDepth>
    <maxWeakCount>100</maxWeakCount></stageParams>
  <featureParams>
    <maxCatCount>0</maxCatCount>
    <featSize>1</featSize>
    <mode>ALL</mode></featureParams>
  <stageNum>3</stageNum>
  <stages>
    <!-- stage 0 -->
    <_>
      <maxWeakCount>6</maxWeakCount>
      <stageThreshold>-1.1171000003814697e+00</stageThreshold>
      <weakClassifiers>
        <_>
          <internalNodes>
            0 -1 6 3.7780143320560455e-03</internalNodes>
          <leafValues>
            -6.4115643501281738e-01 9.1504853963851929e-01</leafValues></_>
        <_>
          <internalNodes>
            0 -1 9 2.3331518750637770e-03</internalNodes>
          <leafValues>
            -6.5156304836273193e-01 8.6160671710968018e-01</leafValues></_>
        <_>
          <internalNodes>
            0 -1 0 4.1607365012168884e-02</internalNodes>
          <leafValues>
            -9.6087723970413208e-01 5.2727663516998291e-01</leafValues></_>
        <_>
          <internalNodes>
            0 -1 12 -2.4149335920810699e-02</internalNodes>
          <leafValues>
            9.8339879512786865e-01 -4.8699104785919189e-01</leafValues></_>
        <_>
          <internalNodes>
            0 -1 7 -1.1645116843283176e-02</internalNodes>
          <leafValues>
            9.8795533180236816e-01 -5.4264473915100098e-01</leafValues></_>
        <_>
          <internalNodes>
            0 -1 14 7.5873732566833496e-03</internalNodes>
          <leafValues>
            -8.7822628021240234e-01 5.8185130357742310e-01</leafValues></_></weakClassifiers></_>
    <!-- stage 1 -->
    <_>
      <maxWeakCount>6</maxWeakCount>
      <stageThreshold>-5.1929485797882080e-01</stageThreshold>
      <weakClassifiers>
        <_>
          <internalNodes>
            0 -1 8 1.7776841297745705e-02</internalNodes>
          <leafValues>
            -6.1268210411071777e-01 8.5834336280822754e-01</leafValues></_>
        <_>
          <internalNodes>
            0 -1 11 4.4839000329375267e-03</internalNodes>
          <leafValues>
            -5.2470856904983521e-01 8.9520937204360962e-01</leafValues></_>
        <_>
          <internalNodes>
            0 -1 2 4.4411018490791321e-02</internalNodes>
          <leafValues>
            5.6916415691375732e-01 -9.3358767032623291e-01</leafValues></_>
        <_>
          <internalNodes>
            0 -1 3 -5.8656563051044941e-03</internalNodes>
          <leafValues>
            9.1970741748809814e-01 -4.5638635754585266e-01</leafValues></_>
        <_>
          <internalNodes>
            0 -1 15 -1.0923931375145912e-02</internalNodes>
          <leafValues>
            1. -4.1050803661346436e-01</leafValues></_>
        <_>
          <internalNodes>
            0 -1 13 -2.3373646661639214e-02</internalNodes>
          <leafValues>
            9.4755250215530396e-01 -3.7258967757225037e-01</leafValues></_></weakClassifiers></_>
    <!-- stage 2 -->
    <_>
      <maxWeakCount>6</maxWeakCount>
      <stageThreshold>1.0874483734369278e-02</stageThreshold>
      <weakClassifiers>
        <_>
          <internalNodes>
            0 -1 4 -5.9191156178712845e-03</internalNodes>
          <leafValues>
            9.2383641004562378e-01 -5.0735861063003540e-01</leafValues></_>
        <_>
          <internalNodes>
            0 -1 1 4.7554172575473785e-02</internalNodes>
          <leafValues>
            5.1080560684204102e-01 -9.7396624088287354e-01</leafValues></_>
        <_>
          <internalNodes>
            0 -1 5 -5.9106208384037018e-02</internalNodes>
          <leafValues>
            9.7023123502731323e-01 -4.7021558880805969e-01</leafValues></_>
        <_>
          <internalNodes>
            0 -1 10 -2.8238778933882713e-02</internalNodes>
          <leafValues>
            9.5761448144912720e-01 -5.4342049360275269e-01</leafValues></_>
        <_>
          <internalNodes>
            0 -1 16 -3.5198405385017395e-05</internalNodes>
          <leafValues>
            -1. 5.5168133974075317e-01</leafValues></_>
        <_>
          <internalNodes>
            0 -1 16 7.5240786827635020e-05</internalNodes>
          <leafValues>
            4.7124356031417847e-01 -9.7106456756591797e-01</leafValues></_></weakClassifiers></_></stages>
  <features>
    <_>
      <rects>
        <_>
          0 0 20 20 -1.</_>
        <_>
          5 0 10 20 2.</_></rects>
      <tilted>0</tilted></_>
    <_>
      <rects>
        <_>
          2 3 18 14 -1.</_>
        <_>
          11 3 9 14 2.</_></rects>
      <tilted>0</tilted></_>
    <_>
      <rects>
        <_>
          2 4 16 12 -1.</_>
        <_>
          6 4 8 12 2.</_></rects>
      <tilted>0</tilted></_>
    <_>
      <rects>
        <_>
          5 7 1 3 -1.</_>
        <_>
          5 8 1 1 3.</_></rects>
      <tilted>0</tilted></_>
    <_>
      <rects>
        <_>
          5 10 1 3 -1.</_>
        <_>
          5 11 1 1 3.</_></rects>
      <tilted>0</tilted></_>
    <_>
      <rects>
        <_>
          6 3 12 3 -1.</_>
        <_>
          5 4 12 1 3.</_></rects>
      <tilted>1</tilted></_>
    <_>
      <rects>
        <_>
          7 6 3 1 -1.</_>
        <_>
          8 6 1 1 3.</_></rects>
      <tilted>0</tilted></_>
    <_>
      <rects>
        <_>
          8 13 3 4 -1.</_>
        <_>
          9 13 1 4 3.</_></rects>
      <tilted>0</tilted></_>
    <_>
      <rects>
        <_>
          9 7 3 3 -1.</_>
        <_>
          10 8 1 1 9.</_></rects>
      <tilted>0</tilted></_>
    <_>
      <rects>
        <_>
          9 10 1 2 -1.</_>
        <_>
          9 11 1 1 2.</_></rects>
      <tilted>0</tilted></_>
    <_>
      <rects>
        <_>
          10 11 3 3 -1.</_>
        <_>
          11 12 1 1 9.</_></rects>
      <tilted>0</tilted></_>
    <_>
      <rects>
        <_>
          10 13 3 1 -1.</_>
        <_>
          11 13 1 1 3.</_></rects>
      <tilted>0</tilted></_>
    <_>
      <rects>
        <_>
          12 7 3 3 -1.</_>
        <_>
          13 8 1 1 9.</_></rects>
      <tilted>0</tilted></_>
    <_>
      <rects>
        <_>
          12 10 3 3 -1.</_>
        <_>
          13 11 1 1 9.</_></rects>
      <tilted>0</tilted></_>
    <_>
      <rects>
        <_>
          13 0 7 6 -1.</_>
        <_>
          13 3 7 3 2.</_></rects>
      <tilted>0</tilted></_>
    <_>
      <rects>
        <_>
          13 9 1 3 -1.</_>
        <_>
          13 10 1 1 3.</_></rects>
      <tilted>0</tilted></_>
    <_>
      <rects>
        <_>
          19 1 1 2 -1.</_>
        <_>
          19 2 1 1 2.</_></rects>
      <tilted>0</tilted></_></features></cascade>
</opencv_storage>
