<?xml version="1.0"?>
<opencv_storage>
<cascade>
  <stageType>BOOST</stageType>
  <featureType>HAAR</featureType>
  <height>20</height>
  <width>20</width>
  <stageParams>
    <boostType>GAB</boostType>
    <minHitRate>9.9900001287460327e-01</minHitRate>
    <maxFalseAlarm>5.0000000745058060e-02</maxFalseAlarm>
    <weightTrimRate>9.4999999999999996e-01</weightTrimRate>
    <maxDepth>1</maxDepth>
    <maxWeakCount>100</maxWeakCount></stageParams>
  <featureParams>
    <maxCatCount>0</maxCatCount>
    <featSize>1</featSize>
    <mode>ALL</mode></featureParams>
  <stageNum>3</stageNum>
  <stages>
    <!-- stage 0 -->
    <_>
      <maxWeakCount>8</maxWeakCount>
      <stageThreshold>3.8004091382026672e-01</stageThreshold>
      <weakClassifiers>
        <_>
          <internalNodes>
            0 -1 13 1.4127912931144238e-02</internalNodes>
          <leafValues>
            -6.4705884456634521e-01 8.5598140954971313e-01</leafValues></_>
        <_>
          <internalNodes>
            0 -1 8 3.6006676964461803e-03</internalNodes>
          <leafValues>
            -5.8553272485733032e-01 9.4029474258422852e-01</leafValues></_>
        <_>
          <internalNodes>
            0 -1 0 3.9854988455772400e-02</internalNodes>
          <leafValues>
            -9.8123705387115479e-01 5.6199812889099121e-01</leafValues></_>
        <_>
          <internalNodes>
            0 -1 14 -6.3898512162268162e-03</internalNodes>
          <leafValues>
            9.8665100336074829e-01 -5.0462919473648071e-01</leafValues></_>
        <_>
          <internalNodes>
            0 -1 19 -2.6360996067523956e-02</internalNodes>
          <leafValues>
            9.8040467500686646e-01 -5.2992129325866699e-01</leafValues></_>
        <_>
          <internalNodes>
            0 -1 11 -1.1050935834646225e-02</internalNodes>
          <leafValues>
            6.8278521299362183e-01 -6.8570935726165771e-01</leafValues></_>
        <_>
          <internalNodes>
            0 -1 1 -2.9376387828961015e-05</internalNodes>
          <leafValues>
            -9.9802768230438232e-01 4.8220750689506531e-01</leafValues></_>
        <_>
          <internalNodes>
            0 -1 9 -5.5244313552975655e-03</internalNodes>
          <leafValues>
            9.5350587368011475e-01 -5.7108819484710693e-01</leafValues></_></weakClassifiers></_>
    <!-- stage 1 -->
    <_>
      <maxWeakCount>9</maxWeakCount>
      <stageThreshold>-3.8543975353240967e-01</stageThreshold>
      <weakClassifiers>
        <_>
          <internalNodes>
            0 -1 22 -6.3749202527105808e-03</internalNodes>
          <leafValues>
            9.1412740945816040e-01 -5.1643192768096924e-01</leafValues></_>
        <_>
          <internalNodes>
            0 -1 3 3.6587440263247117e-05</internalNodes>
          <leafValues>
            5.5066353082656860e-01 -9.2248588800430298e-01</leafValues></_>
        <_>
          <internalNodes>
            0 -1 10 4.8850150778889656e-03</internalNodes>
          <leafValues>
            -5.8937108516693115e-01 8.6183482408523560e-01</leafValues></_>
        <_>
          <internalNodes>
            0 -1 5 2.6042044162750244e-02</internalNodes>
          <leafValues>
            5.4528653621673584e-01 -8.6364203691482544e-01</leafValues></_>
        <_>
          <internalNodes>
            0 -1 16 -5.3411060944199562e-03</internalNodes>
          <leafValues>
            9.9137192964553833e-01 -4.6814104914665222e-01</leafValues></_>
        <_>
          <internalNodes>
            0 -1 6 -2.0050930324941874e-03</internalNodes>
          <leafValues>
            -9.6080553531646729e-01 5.1332086324691772e-01</leafValues></_>
        <_>
          <internalNodes>
            0 -1 15 -6.4943423494696617e-03</internalNodes>
          <leafValues>
            8.9416980743408203e-01 -6.3007175922393799e-01</leafValues></_>
        <_>
          <internalNodes>
            0 -1 12 -2.5448543950915337e-02</internalNodes>
          <leafValues>
            9.6747386455535889e-01 -4.2342850565910339e-01</leafValues></_>
        <_>
          <internalNodes>
            0 -1 20 8.6328834295272827e-03</internalNodes>
          <leafValues>
            -9.2304897308349609e-01 6.3273364305496216e-01</leafValues></_></weakClassifiers></_>
    <!-- stage 2 -->
    <_>
      <maxWeakCount>7</maxWeakCount>
      <stageThreshold>-4.6126946806907654e-01</stageThreshold>
      <weakClassifiers>
        <_>
          <internalNodes>
            0 -1 17 -1.9973283633589745e-02</internalNodes>
          <leafValues>
            9.7376096248626709e-01 -5.0837141275405884e-01</leafValues></_>
        <_>
          <internalNodes>
            0 -1 4 3.6912560462951660e-02</internalNodes>
          <leafValues>
            5.8203375339508057e-01 -9.6542870998382568e-01</leafValues></_>
        <_>
          <internalNodes>
            0 -1 21 -1.8219642341136932e-02</internalNodes>
          <leafValues>
            9.0845996141433716e-01 -5.7045090198516846e-01</leafValues></_>
        <_>
          <internalNodes>
            0 -1 23 4.5576085540233180e-05</internalNodes>
          <leafValues>
            5.0710737705230713e-01 -9.9636304378509521e-01</leafValues></_>
        <_>
          <internalNodes>
            0 -1 7 -4.4464245438575745e-02</internalNodes>
          <leafValues>
            1. -4.8884588479995728e-01</leafValues></_>
        <_>
          <internalNodes>
            0 -1 18 4.8628421500325203e-03</internalNodes>
          <leafValues>
            -4.1678118705749512e-01 9.8944175243377686e-01</leafValues></_>
        <_>
          <internalNodes>
            0 -1 2 8.6972475401125848e-05</internalNodes>
          <leafValues>
            5.7527822256088257e-01 -9.2422294616699219e-01</leafValues></_></weakClassifiers></_></stages>
  <features>
    <_>
      <rects>
        <_>
          0 0 20 20 -1.</_>
        <_>
          5 0 10 20 2.</_></rects>
      <tilted>0</tilted></_>
    <_>
      <rects>
        <_>
          0 18 4 2 -1.</_>
        <_>
          2 18 2 2 2.</_></rects>
      <tilted>0</tilted></_>
    <_>
      <rects>
        <_>
          1 17 2 1 -1.</_>
        <_>
          1 17 1 1 2.</_></rects>
      <tilted>1</tilted></_>
    <_>
      <rects>
        <_>
          1 19 2 1 -1.</_>
        <_>
          2 19 1 1 2.</_></rects>
      <tilted>0</tilted></_>
    <_>
      <rects>
        <_>
          2 4 18 10 -1.</_>
        <_>
          11 4 9 10 2.</_></rects>
      <tilted>0</tilted></_>
    <_>
      <rects>
        <_>
          2 7 16 9 -1.</_>
        <_>
          6 7 8 9 2.</_></rects>
      <tilted>0</tilted></_>
    <_>
      <rects>
        <_>
          3 8 17 12 -1.</_>
        <_>
          3 11 17 6 2.</_></rects>
      <tilted>0</tilted></_>
    <_>
      <rects>
        <_>
          6 3 12 3 -1.</_>
        <_>
          5 4 12 1 3.</_></rects>
      <tilted>1</tilted></_>
    <_>
      <rects>
        <_>
          6 8 3 1 -1.</_>
        <_>
          7 8 1 1 3.</_></rects>
      <tilted>0</tilted></_>
    <_>
      <rects>
        <_>
          6 10 1 3 -1.</_>
        <_>
          6 11 1 1 3.</_></rects>
      <tilted>0</tilted></_>
    <_>
      <rects>
        <_>
          7 6 3 1 -1.</_>
        <_>
          8 6 1 1 3.</_></rects>
      <tilted>0</tilted></_>
    <_>
      <rects>
        <_>
          7 9 6 3 -1.</_>
        <_>
          9 10 2 1 9.</_></rects>
      <tilted>0</tilted></_>
    <_>
      <rects>
        <_>
          9 2 3 6 -1.</_>
        <_>
          10 2 1 6 3.</_></rects>
      <tilted>0</tilted></_>
    <_>
      <rects>
        <_>
          9 7 3 3 -1.</_>
        <_>
          10 8 1 1 9.</_></rects>
      <tilted>0</tilted></_>
    <_>
      <rects>
        <_>
          9 13 3 1 -1.</_>
        <_>
          10 13 1 1 3.</_></rects>
      <tilted>0</tilted></_>
    <_>
      <rects>
        <_>
          9 14 3 1 -1.</_>
        <_>
          10 14 1 1 3.</_></rects>
      <tilted>0</tilted></_>
    <_>
      <rects>
        <_>
          10 12 2 1 -1.</_>
        <_>
          11 12 1 1 2.</_></rects>
      <tilted>0</tilted></_>
    <_>
      <rects>
        <_>
          11 5 3 3 -1.</_>
        <_>
          12 6 1 1 9.</_></rects>
      <tilted>0</tilted></_>
    <_>
      <rects>
        <_>
          11 11 2 2 -1.</_>
        <_>
          11 11 1 1 2.</_>
        <_>
          12 12 1 1 2.</_></rects>
      <tilted>0</tilted></_>
    <_>
      <rects>
        <_>
          12 10 3 3 -1.</_>
        <_>
          13 11 1 1 9.</_></rects>
      <tilted>0</tilted></_>
    <_>
      <rects>
        <_>
          13 0 7 6 -1.</_>
        <_>
          13 3 7 3 2.</_></rects>
      <tilted>0</tilted></_>
    <_>
      <rects>
        <_>
          13 10 3 3 -1.</_>
        <_>
          14 11 1 1 9.</_></rects>
      <tilted>0</tilted></_>
    <_>
      <rects>
        <_>
          14 7 1 3 -1.</_>
        <_>
          14 8 1 1 3.</_></rects>
      <tilted>0</tilted></_>
    <_>
      <rects>
        <_>
          18 17 2 3 -1.</_>
        <_>
          19 17 1 3 2.</_></rects>
      <tilted>0</tilted></_></features></cascade>
</opencv_storage>
